digraph Tree {
node [shape=box, style="filled, rounded", color="black", fontname=helvetica] ;
edge [fontname=helvetica] ;
0 [label="combateestres <= 2.0\nentropy = 1.174\nsamples = 100\nvalue = [66, 7, 27]\nclass = Si", fillcolor="#f1bc95"] ;
1 [label="Edad <= 17.5\nentropy = 1.059\nsamples = 86\nvalue = [63, 6, 17]\nclass = Si", fillcolor="#eeab7b"] ;
0 -> 1 [labeldistance=2.5, labelangle=45, headlabel="True"] ;
2 [label="Edad <= 16.5\nentropy = 0.874\nsamples = 77\nvalue = [62, 4, 11]\nclass = Si", fillcolor="#eb9e66"] ;
1 -> 2 ;
3 [label="Edad <= 15.5\nentropy = 0.879\nsamples = 57\nvalue = [45, 2, 10]\nclass = Si", fillcolor="#eca16c"] ;
2 -> 3 ;
4 [label="esunproblema <= 2.0\nentropy = 0.65\nsamples = 6\nvalue = [5, 1, 0]\nclass = Si", fillcolor="#ea9a61"] ;
3 -> 4 ;
5 [label="entropy = 0.0\nsamples = 3\nvalue = [3, 0, 0]\nclass = Si", fillcolor="#e58139"] ;
4 -> 5 ;
6 [label="entropy = 0.918\nsamples = 3\nvalue = [2, 1, 0]\nclass = Si", fillcolor="#f2c09c"] ;
4 -> 6 ;
7 [label="sintoma <= 2.5\nentropy = 0.847\nsamples = 51\nvalue = [40, 1, 10]\nclass = Si", fillcolor="#eca36e"] ;
3 -> 7 ;
8 [label="entropy = 0.592\nsamples = 35\nvalue = [30, 0, 5]\nclass = Si", fillcolor="#e9965a"] ;
7 -> 8 ;
9 [label="entropy = 1.198\nsamples = 16\nvalue = [10, 1, 5]\nclass = Si", fillcolor="#f3c6a5"] ;
7 -> 9 ;
10 [label="sintoma <= 1.5\nentropy = 0.748\nsamples = 20\nvalue = [17, 2, 1]\nclass = Si", fillcolor="#e9965a"] ;
2 -> 10 ;
11 [label="esunproblema <= 2.5\nentropy = 1.157\nsamples = 10\nvalue = [7, 2, 1]\nclass = Si", fillcolor="#efb083"] ;
10 -> 11 ;
12 [label="entropy = 0.764\nsamples = 9\nvalue = [7, 2, 0]\nclass = Si", fillcolor="#eca572"] ;
11 -> 12 ;
13 [label="entropy = 0.0\nsamples = 1\nvalue = [0, 0, 1]\nclass = Tal vez", fillcolor="#8139e5"] ;
11 -> 13 ;
14 [label="entropy = 0.0\nsamples = 10\nvalue = [10, 0, 0]\nclass = Si", fillcolor="#e58139"] ;
10 -> 14 ;
15 [label="Edad <= 19.5\nentropy = 1.224\nsamples = 9\nvalue = [1, 2, 6]\nclass = Tal vez", fillcolor="#b78ef0"] ;
1 -> 15 ;
16 [label="esunproblema <= 1.5\nentropy = 0.863\nsamples = 7\nvalue = [0, 2, 5]\nclass = Tal vez", fillcolor="#b388ef"] ;
15 -> 16 ;
17 [label="sintoma <= 2.0\nentropy = 1.0\nsamples = 4\nvalue = [0, 2, 2]\nclass = No", fillcolor="#ffffff"] ;
16 -> 17 ;
18 [label="entropy = 0.918\nsamples = 3\nvalue = [0, 1, 2]\nclass = Tal vez", fillcolor="#c09cf2"] ;
17 -> 18 ;
19 [label="entropy = 0.0\nsamples = 1\nvalue = [0, 1, 0]\nclass = No", fillcolor="#39e581"] ;
17 -> 19 ;
20 [label="entropy = 0.0\nsamples = 3\nvalue = [0, 0, 3]\nclass = Tal vez", fillcolor="#8139e5"] ;
16 -> 20 ;
21 [label="sintoma <= 2.0\nentropy = 1.0\nsamples = 2\nvalue = [1, 0, 1]\nclass = Si", fillcolor="#ffffff"] ;
15 -> 21 ;
22 [label="entropy = 0.0\nsamples = 1\nvalue = [1, 0, 0]\nclass = Si", fillcolor="#e58139"] ;
21 -> 22 ;
23 [label="entropy = 0.0\nsamples = 1\nvalue = [0, 0, 1]\nclass = Tal vez", fillcolor="#8139e5"] ;
21 -> 23 ;
24 [label="dominiointernet <= 2.5\nentropy = 1.095\nsamples = 14\nvalue = [3, 1, 10]\nclass = Tal vez", fillcolor="#af81ee"] ;
0 -> 24 [labeldistance=2.5, labelangle=-45, headlabel="False"] ;
25 [label="Edad <= 16.5\nentropy = 0.991\nsamples = 13\nvalue = [2, 1, 10]\nclass = Tal vez", fillcolor="#a36fec"] ;
24 -> 25 ;
26 [label="sintoma <= 2.0\nentropy = 0.592\nsamples = 7\nvalue = [1, 0, 6]\nclass = Tal vez", fillcolor="#965ae9"] ;
25 -> 26 ;
27 [label="Edad <= 15.5\nentropy = 0.722\nsamples = 5\nvalue = [1, 0, 4]\nclass = Tal vez", fillcolor="#a06aec"] ;
26 -> 27 ;
28 [label="entropy = 0.0\nsamples = 2\nvalue = [0, 0, 2]\nclass = Tal vez", fillcolor="#8139e5"] ;
27 -> 28 ;
29 [label="entropy = 0.918\nsamples = 3\nvalue = [1, 0, 2]\nclass = Tal vez", fillcolor="#c09cf2"] ;
27 -> 29 ;
30 [label="entropy = 0.0\nsamples = 2\nvalue = [0, 0, 2]\nclass = Tal vez", fillcolor="#8139e5"] ;
26 -> 30 ;
31 [label="esunproblema <= 2.5\nentropy = 1.252\nsamples = 6\nvalue = [1, 1, 4]\nclass = Tal vez", fillcolor="#b388ef"] ;
25 -> 31 ;
32 [label="esunproblema <= 1.5\nentropy = 0.918\nsamples = 3\nvalue = [0, 1, 2]\nclass = Tal vez", fillcolor="#c09cf2"] ;
31 -> 32 ;
33 [label="entropy = 0.0\nsamples = 2\nvalue = [0, 0, 2]\nclass = Tal vez", fillcolor="#8139e5"] ;
32 -> 33 ;
34 [label="entropy = 0.0\nsamples = 1\nvalue = [0, 1, 0]\nclass = No", fillcolor="#39e581"] ;
32 -> 34 ;
35 [label="sintoma <= 2.0\nentropy = 0.918\nsamples = 3\nvalue = [1, 0, 2]\nclass = Tal vez", fillcolor="#c09cf2"] ;
31 -> 35 ;
36 [label="entropy = 0.0\nsamples = 1\nvalue = [0, 0, 1]\nclass = Tal vez", fillcolor="#8139e5"] ;
35 -> 36 ;
37 [label="entropy = 1.0\nsamples = 2\nvalue = [1, 0, 1]\nclass = Si", fillcolor="#ffffff"] ;
35 -> 37 ;
38 [label="entropy = 0.0\nsamples = 1\nvalue = [1, 0, 0]\nclass = Si", fillcolor="#e58139"] ;
24 -> 38 ;
}