digraph Tree {
node [shape=box, style="filled, rounded", color="black", fontname=helvetica] ;
edge [fontname=helvetica] ;
0 [label="combateestres <= 2.0\nentropy = 1.174\nsamples = 100\nvalue = [66, 7, 27]\nclass = Si", fillcolor="#f1bc95"] ;
1 [label="Edad <= 17.5\nentropy = 1.059\nsamples = 86\nvalue = [63, 6, 17]\nclass = Si", fillcolor="#eeab7b"] ;
0 -> 1 [labeldistance=2.5, labelangle=45, headlabel="True"] ;
2 [label="sintoma <= 2.5\nentropy = 0.874\nsamples = 77\nvalue = [62, 4, 11]\nclass = Si", fillcolor="#eb9e66"] ;
1 -> 2 ;
3 [label="Edad <= 16.5\nentropy = 0.929\nsamples = 70\nvalue = [55, 4, 11]\nclass = Si", fillcolor="#eca16b"] ;
2 -> 3 ;
4 [label="Edad <= 15.5\nentropy = 0.919\nsamples = 53\nvalue = [41, 2, 10]\nclass = Si", fillcolor="#eca470"] ;
3 -> 4 ;
5 [label="entropy = 0.65\nsamples = 6\nvalue = [5, 1, 0]\nclass = Si", fillcolor="#ea9a61"] ;
4 -> 5 ;
6 [label="entropy = 0.888\nsamples = 47\nvalue = [36, 1, 10]\nclass = Si", fillcolor="#eda674"] ;
4 -> 6 ;
7 [label="esunproblema <= 2.5\nentropy = 0.834\nsamples = 17\nvalue = [14, 2, 1]\nclass = Si", fillcolor="#ea9a61"] ;
3 -> 7 ;
8 [label="entropy = 0.567\nsamples = 15\nvalue = [13, 2, 0]\nclass = Si", fillcolor="#e99457"] ;
7 -> 8 ;
9 [label="entropy = 1.0\nsamples = 2\nvalue = [1, 0, 1]\nclass = Si", fillcolor="#ffffff"] ;
7 -> 9 ;
10 [label="entropy = 0.0\nsamples = 7\nvalue = [7, 0, 0]\nclass = Si", fillcolor="#e58139"] ;
2 -> 10 ;
11 [label="Edad <= 19.5\nentropy = 1.224\nsamples = 9\nvalue = [1, 2, 6]\nclass = Tal vez", fillcolor="#b78ef0"] ;
1 -> 11 ;
12 [label="esunproblema <= 1.5\nentropy = 0.863\nsamples = 7\nvalue = [0, 2, 5]\nclass = Tal vez", fillcolor="#b388ef"] ;
11 -> 12 ;
13 [label="sintoma <= 1.5\nentropy = 1.0\nsamples = 4\nvalue = [0, 2, 2]\nclass = No", fillcolor="#ffffff"] ;
12 -> 13 ;
14 [label="entropy = 0.0\nsamples = 1\nvalue = [0, 1, 0]\nclass = No", fillcolor="#39e581"] ;
13 -> 14 ;
15 [label="entropy = 0.918\nsamples = 3\nvalue = [0, 1, 2]\nclass = Tal vez", fillcolor="#c09cf2"] ;
13 -> 15 ;
16 [label="entropy = 0.0\nsamples = 3\nvalue = [0, 0, 3]\nclass = Tal vez", fillcolor="#8139e5"] ;
12 -> 16 ;
17 [label="sintoma <= 1.5\nentropy = 1.0\nsamples = 2\nvalue = [1, 0, 1]\nclass = Si", fillcolor="#ffffff"] ;
11 -> 17 ;
18 [label="entropy = 0.0\nsamples = 1\nvalue = [0, 0, 1]\nclass = Tal vez", fillcolor="#8139e5"] ;
17 -> 18 ;
19 [label="entropy = 0.0\nsamples = 1\nvalue = [1, 0, 0]\nclass = Si", fillcolor="#e58139"] ;
17 -> 19 ;
20 [label="dominiointernet <= 2.5\nentropy = 1.095\nsamples = 14\nvalue = [3, 1, 10]\nclass = Tal vez", fillcolor="#af81ee"] ;
0 -> 20 [labeldistance=2.5, labelangle=-45, headlabel="False"] ;
21 [label="Edad <= 16.5\nentropy = 0.991\nsamples = 13\nvalue = [2, 1, 10]\nclass = Tal vez", fillcolor="#a36fec"] ;
20 -> 21 ;
22 [label="Edad <= 15.5\nentropy = 0.592\nsamples = 7\nvalue = [1, 0, 6]\nclass = Tal vez", fillcolor="#965ae9"] ;
21 -> 22 ;
23 [label="entropy = 0.0\nsamples = 2\nvalue = [0, 0, 2]\nclass = Tal vez", fillcolor="#8139e5"] ;
22 -> 23 ;
24 [label="sintoma <= 1.5\nentropy = 0.722\nsamples = 5\nvalue = [1, 0, 4]\nclass = Tal vez", fillcolor="#a06aec"] ;
22 -> 24 ;
25 [label="entropy = 0.0\nsamples = 2\nvalue = [0, 0, 2]\nclass = Tal vez", fillcolor="#8139e5"] ;
24 -> 25 ;
26 [label="entropy = 0.918\nsamples = 3\nvalue = [1, 0, 2]\nclass = Tal vez", fillcolor="#c09cf2"] ;
24 -> 26 ;
27 [label="esunproblema <= 2.5\nentropy = 1.252\nsamples = 6\nvalue = [1, 1, 4]\nclass = Tal vez", fillcolor="#b388ef"] ;
21 -> 27 ;
28 [label="esunproblema <= 1.5\nentropy = 0.918\nsamples = 3\nvalue = [0, 1, 2]\nclass = Tal vez", fillcolor="#c09cf2"] ;
27 -> 28 ;
29 [label="entropy = 0.0\nsamples = 2\nvalue = [0, 0, 2]\nclass = Tal vez", fillcolor="#8139e5"] ;
28 -> 29 ;
30 [label="entropy = 0.0\nsamples = 1\nvalue = [0, 1, 0]\nclass = No", fillcolor="#39e581"] ;
28 -> 30 ;
31 [label="sintoma <= 1.5\nentropy = 0.918\nsamples = 3\nvalue = [1, 0, 2]\nclass = Tal vez", fillcolor="#c09cf2"] ;
27 -> 31 ;
32 [label="entropy = 1.0\nsamples = 2\nvalue = [1, 0, 1]\nclass = Si", fillcolor="#ffffff"] ;
31 -> 32 ;
33 [label="entropy = 0.0\nsamples = 1\nvalue = [0, 0, 1]\nclass = Tal vez", fillcolor="#8139e5"] ;
31 -> 33 ;
34 [label="entropy = 0.0\nsamples = 1\nvalue = [1, 0, 0]\nclass = Si", fillcolor="#e58139"] ;
20 -> 34 ;
}